svm_type c_svc
kernel_type rbf
gamma 0.017857142857142856
nr_class 2
total_sv 71
rho -0.076980359602919574
label 1 0
nr_sv 37 34
SV
1 0:1 1:0 2:2 3:0 4:0 5:0 6:1 7:2 8:3 9:3 10:3 11:3 12:0 13:3 14:3 15:1 16:2 17:0 18:0 19:1 20:0 21:3 22:1 23:2 24:0 25:3 26:1 27:3 28:1 29:2 30:3 31:1 32:3 33:3 34:2 35:3 36:2 37:3 38:3 39:0 40:2 41:0 42:0 43:3 44:3 45:1 46:3 47:0 48:0 49:1 50:0 51:3 52:0 53:1 54:2 55:2 56:3 
0.32858219369886399 0:2 1:1 2:0 3:0 4:0 5:0 6:0 7:3 8:0 9:0 10:0 11:3 12:2 13:1 14:3 15:3 16:2 17:0 18:1 19:3 20:1 21:3 22:2 23:3 24:0 25:2 26:1 27:2 28:2 29:2 30:0 31:0 32:2 33:2 34:1 35:2 36:3 37:0 38:3 39:3 40:0 41:3 42:2 43:1 44:0 45:1 46:0 47:1 48:1 49:1 50:1 51:2 52:1 53:2 54:1 55:1 56:2 
0.56980020789520203 0:3 1:1 2:3 3:2 4:0 5:0 6:0 7:3 8:2 9:0 10:2 11:1 12:3 13:2 14:3 15:3 16:2 17:0 18:1 19:0 20:0 21:3 22:3 23:0 24:0 25:3 26:1 27:0 28:3 29:1 30:2 31:0 32:0 33:1 34:3 35:0 36:2 37:3 38:3 39:0 40:0 41:1 42:3 43:0 44:2 45:3 46:0 47:1 48:2 49:1 50:0 51:0 52:2 53:3 54:3 55:1 56:0 
0.90278257204326684 0:0 1:0 2:0 3:3 4:3 5:0 6:0 7:0 8:0 9:3 10:3 11:3 12:3 13:0 14:3 15:3 16:2 17:0 18:1 19:3 20:3 21:0 22:2 23:2 24:3 25:1 26:0 27:1 28:3 29:0 30:0 31:0 32:3 33:0 34:1 35:3 36:3 37:3 38:0 39:0 40:1 41:1 42:0 43:0 44:3 45:0 46:3 47:0 48:2 49:2 50:1 51:0 52:3 53:0 54:2 55:1 56:2 
0.66605634314644779 0:3 1:2 2:3 3:2 4:1 5:0 6:2 7:3 8:3 9:3 10:0 11:3 12:2 13:2 14:3 15:3 16:1 17:1 18:0 19:0 20:0 21:0 22:3 23:1 24:2 25:1 26:1 27:3 28:3 29:3 30:3 31:2 32:1 33:3 34:2 35:3 36:0 37:3 38:0 39:3 40:0 41:1 42:3 43:1 44:0 45:1 46:0 47:2 48:1 49:0 50:3 51:0 52:0 53:1 54:3 55:2 56:3 
0.46665348795110323 0:3 1:1 2:2 3:3 4:3 5:2 6:3 7:0 8:3 9:0 10:3 11:3 12:3 13:1 14:3 15:3 16:2 17:0 18:1 19:0 20:1 21:1 22:3 23:3 24:3 25:3 26:1 27:2 28:2 29:1 30:0 31:3 32:1 33:2 34:1 35:1 36:1 37:3 38:0 39:0 40:0 41:0 42:3 43:3 44:1 45:2 46:2 47:1 48:2 49:3 50:1 51:1 52:3 53:1 54:0 55:3 56:0 
0.61995007240868982 0:3 1:3 2:3 3:1 4:3 5:0 6:1 7:0 8:0 9:0 10:0 11:1 12:0 13:1 14:3 15:3 16:2 17:0 18:3 19:0 20:1 21:3 22:2 23:3 24:0 25:3 26:2 27:0 28:2 29:1 30:0 31:3 32:0 33:1 34:0 35:2 36:3 37:0 38:3 39:0 40:0 41:3 42:3 43:2 44:1 45:3 46:3 47:1 48:0 49:0 50:1 51:0 52:2 53:0 54:0 55:1 56:0 
0.80130890789126841 0:3 1:1 2:1 3:0 4:2 5:3 6:0 7:3 8:0 9:0 10:3 11:3 12:3 13:2 14:3 15:3 16:2 17:2 18:1 19:0 20:3 21:0 22:0 23:3 24:3 25:0 26:0 27:2 28:3 29:0 30:1 31:2 32:0 33:1 34:2 35:0 36:2 37:3 38:0 39:0 40:0 41:0 42:3 43:3 44:0 45:1 46:0 47:3 48:0 49:1 50:1 51:3 52:2 53:1 54:1 55:1 56:2 
1 0:3 1:2 2:2 3:2 4:2 5:0 6:1 7:2 8:3 9:1 10:2 11:3 12:3 13:0 14:1 15:3 16:2 17:0 18:3 19:1 20:1 21:2 22:1 23:0 24:1 25:2 26:3 27:3 28:3 29:0 30:3 31:2 32:0 33:3 34:0 35:3 36:2 37:1 38:3 39:0 40:3 41:1 42:2 43:3 44:0 45:1 46:3 47:1 48:3 49:3 50:3 51:0 52:2 53:1 54:2 55:0 56:2 
0.96105661307422752 0:3 1:2 2:1 3:3 4:0 5:3 6:1 7:1 8:3 9:2 10:0 11:1 12:0 13:2 14:3 15:3 16:2 17:3 18:1 19:0 20:1 21:2 22:1 23:3 24:2 25:0 26:3 27:3 28:2 29:2 30:3 31:2 32:3 33:1 34:2 35:3 36:3 37:0 38:1 39:0 40:0 41:3 42:1 43:3 44:0 45:0 46:1 47:2 48:1 49:0 50:3 51:1 52:2 53:1 54:1 55:0 56:0 
0.78409569312614613 0:3 1:0 2:1 3:3 4:0 5:2 6:1 7:0 8:0 9:3 10:0 11:1 12:2 13:1 14:3 15:3 16:2 17:1 18:2 19:3 20:3 21:1 22:2 23:2 24:3 25:2 26:2 27:3 28:3 29:0 30:0 31:2 32:3 33:0 34:3 35:2 36:3 37:0 38:3 39:0 40:0 41:3 42:2 43:1 44:2 45:1 46:2 47:2 48:2 49:1 50:3 51:3 52:2 53:3 54:1 55:2 56:3 
0.88301641304843126 0:0 1:0 2:3 3:3 4:2 5:3 6:2 7:0 8:3 9:2 10:3 11:2 12:3 13:0 14:3 15:1 16:2 17:0 18:0 19:2 20:3 21:2 22:3 23:2 24:3 25:3 26:2 27:1 28:2 29:2 30:0 31:2 32:3 33:0 34:2 35:0 36:3 37:2 38:3 39:3 40:0 41:2 42:0 43:0 44:3 45:0 46:1 47:3 48:0 49:0 50:1 51:0 52:0 53:0 54:1 55:3 56:1 
1 0:1 1:0 2:1 3:3 4:0 5:0 6:3 7:3 8:3 9:0 10:3 11:3 12:1 13:1 14:0 15:3 16:2 17:3 18:1 19:0 20:1 21:0 22:1 23:3 24:3 25:3 26:3 27:1 28:2 29:1 30:0 31:3 32:1 33:3 34:3 35:3 36:2 37:3 38:3 39:0 40:3 41:2 42:1 43:3 44:0 45:3 46:2 47:2 48:3 49:3 50:0 51:3 52:3 53:3 54:1 55:0 56:3 
0.59566047634767538 0:3 1:3 2:1 3:2 4:1 5:0 6:3 7:0 8:3 9:3 10:3 11:3 12:3 13:1 14:3 15:3 16:2 17:1 18:0 19:0 20:0 21:2 22:3 23:3 24:2 25:2 26:2 27:3 28:3 29:2 30:0 31:2 32:1 33:3 34:2 35:2 36:1 37:3 38:0 39:2 40:0 41:3 42:3 43:0 44:2 45:1 46:1 47:0 48:2 49:1 50:1 51:0 52:0 53:3 54:1 55:3 56:3 
0.81996943068627548 0:1 1:1 2:3 3:3 4:2 5:0 6:0 7:0 8:0 9:0 10:2 11:0 12:2 13:2 14:3 15:3 16:2 17:0 18:1 19:2 20:1 21:3 22:2 23:1 24:0 25:0 26:2 27:2 28:1 29:3 30:1 31:3 32:0 33:3 34:0 35:1 36:2 37:1 38:0 39:3 40:0 41:0 42:3 43:2 44:1 45:2 46:1 47:1 48:1 49:1 50:2 51:1 52:0 53:0 54:1 55:2 56:1 
0.68285875640695382 0:0 1:3 2:0 3:3 4:0 5:0 6:0 7:0 8:0 9:0 10:2 11:3 12:3 13:1 14:3 15:3 16:2 17:1 18:3 19:3 20:3 21:1 22:3 23:0 24:0 25:1 26:2 27:3 28:2 29:0 30:0 31:0 32:2 33:3 34:2 35:2 36:3 37:3 38:3 39:0 40:2 41:2 42:3 43:3 44:0 45:0 46:0 47:0 48:2 49:0 50:1 51:0 52:3 53:1 54:0 55:2 56:3 
0.79952056530670046 0:2 1:1 2:1 3:3 4:3 5:1 6:3 7:1 8:1 9:0 10:0 11:0 12:0 13:1 14:2 15:3 16:2 17:3 18:3 19:3 20:3 21:3 22:3 23:2 24:3 25:3 26:2 27:3 28:3 29:0 30:0 31:3 32:3 33:1 34:2 35:2 36:3 37:2 38:3 39:0 40:2 41:0 42:1 43:3 44:3 45:2 46:3 47:0 48:0 49:0 50:1 51:1 52:3 53:0 54:0 55:0 56:3 
1 0:3 1:0 2:0 3:0 4:0 5:0 6:0 7:1 8:3 9:0 10:0 11:1 12:0 13:2 14:3 15:3 16:2 17:3 18:1 19:0 20:2 21:1 22:1 23:3 24:2 25:3 26:1 27:1 28:1 29:2 30:1 31:3 32:3 33:0 34:3 35:0 36:0 37:2 38:0 39:3 40:1 41:0 42:3 43:0 44:1 45:2 46:1 47:1 48:2 49:3 50:3 51:0 52:3 53:0 54:1 55:2 56:3 
0.69488332510023898 0:3 1:2 2:3 3:0 4:0 5:0 6:1 7:3 8:0 9:0 10:3 11:2 12:1 13:1 14:3 15:3 16:3 17:0 18:1 19:2 20:3 21:2 22:2 23:2 24:1 25:2 26:2 27:3 28:2 29:0 30:3 31:3 32:3 33:3 34:2 35:3 36:1 37:3 38:0 39:1 40:0 41:0 42:3 43:1 44:3 45:3 46:0 47:1 48:1 49:1 50:1 51:1 52:0 53:1 54:2 55:3 56:0 
0.82944921528512228 0:1 1:3 2:2 3:3 4:3 5:2 6:3 7:3 8:1 9:0 10:2 11:3 12:3 13:3 14:3 15:3 16:2 17:0 18:2 19:3 20:3 21:2 22:3 23:2 24:3 25:0 26:3 27:0 28:0 29:1 30:1 31:1 32:1 33:3 34:1 35:0 36:3 37:3 38:1 39:3 40:2 41:0 42:3 43:1 44:1 45:1 46:0 47:2 48:1 49:3 50:3 51:0 52:3 53:0 54:1 55:2 56:2 
1 0:0 1:0 2:0 3:1 4:0 5:0 6:3 7:3 8:3 9:1 10:0 11:2 12:0 13:0 14:3 15:0 16:2 17:0 18:1 19:0 20:0 21:0 22:0 23:0 24:1 25:3 26:1 27:3 28:2 29:0 30:2 31:3 32:2 33:3 34:0 35:0 36:3 37:0 38:0 39:3 40:2 41:3 42:0 43:2 44:1 45:1 46:3 47:1 48:2 49:3 50:2 51:3 52:1 53:3 54:3 55:2 56:1 
0.025362708854323575 0:3 1:1 2:3 3:1 4:0 5:0 6:1 7:2 8:3 9:0 10:0 11:1 12:0 13:1 14:3 15:3 16:3 17:0 18:1 19:0 20:2 21:1 22:2 23:2 24:1 25:2 26:1 27:2 28:3 29:1 30:0 31:3 32:3 33:3 34:2 35:0 36:3 37:0 38:3 39:2 40:0 41:3 42:2 43:1 44:2 45:1 46:1 47:1 48:1 49:2 50:1 51:3 52:3 53:1 54:1 55:1 56:2 
0.80966346751593554 0:0 1:2 2:2 3:2 4:2 5:1 6:0 7:0 8:2 9:2 10:0 11:2 12:2 13:0 14:3 15:2 16:2 17:0 18:0 19:0 20:2 21:0 22:2 23:2 24:3 25:3 26:2 27:1 28:1 29:2 30:3 31:0 32:3 33:0 34:0 35:0 36:2 37:0 38:0 39:0 40:1 41:3 42:0 43:2 44:0 45:2 46:3 47:1 48:1 49:2 50:3 51:3 52:3 53:0 54:2 55:2 56:3 
0.88919056030810351 0:3 1:3 2:0 3:2 4:1 5:2 6:2 7:0 8:3 9:1 10:1 11:3 12:0 13:1 14:1 15:3 16:2 17:0 18:1 19:2 20:1 21:3 22:3 23:3 24:3 25:3 26:0 27:3 28:1 29:2 30:1 31:0 32:0 33:1 34:3 35:1 36:3 37:1 38:3 39:0 40:1 41:3 42:2 43:3 44:3 45:3 46:1 47:3 48:1 49:1 50:0 51:3 52:0 53:1 54:1 55:1 56:2 
0.48138635720455819 0:3 1:3 2:3 3:3 4:0 5:0 6:0 7:3 8:3 9:3 10:1 11:1 12:3 13:1 14:3 15:3 16:2 17:3 18:1 19:0 20:2 21:2 22:1 23:1 24:2 25:2 26:0 27:0 28:3 29:0 30:0 31:1 32:3 33:1 34:1 35:1 36:3 37:0 38:3 39:0 40:0 41:3 42:2 43:1 44:2 45:1 46:1 47:0 48:1 49:1 50:0 51:1 52:3 53:2 54:0 55:1 56:0 
0.91985673871877438 0:2 1:3 2:0 3:1 4:3 5:0 6:2 7:0 8:2 9:0 10:0 11:1 12:3 13:0 14:2 15:3 16:2 17:1 18:0 19:3 20:3 21:0 22:2 23:1 24:3 25:3 26:0 27:3 28:3 29:3 30:3 31:3 32:3 33:3 34:2 35:3 36:3 37:0 38:3 39:1 40:0 41:3 42:2 43:1 44:3 45:0 46:0 47:1 48:1 49:0 50:1 51:1 52:1 53:2 54:2 55:1 56:2 
0.66347419719357514 0:0 1:3 2:2 3:1 4:0 5:0 6:3 7:3 8:3 9:3 10:3 11:3 12:0 13:2 14:3 15:3 16:2 17:1 18:0 19:3 20:2 21:0 22:0 23:1 24:3 25:1 26:2 27:1 28:0 29:3 30:2 31:3 32:1 33:3 34:1 35:1 36:0 37:3 38:0 39:2 40:0 41:0 42:3 43:2 44:1 45:2 46:1 47:2 48:1 49:3 50:0 51:1 52:3 53:3 54:2 55:0 56:3 
0.84057980525274201 0:0 1:0 2:1 3:2 4:1 5:0 6:3 7:0 8:1 9:2 10:2 11:3 12:0 13:3 14:3 15:3 16:3 17:0 18:1 19:1 20:3 21:3 22:1 23:1 24:1 25:0 26:2 27:3 28:1 29:0 30:0 31:2 32:0 33:0 34:0 35:0 36:1 37:3 38:3 39:0 40:3 41:1 42:3 43:3 44:0 45:3 46:3 47:1 48:1 49:1 50:0 51:1 52:3 53:3 54:3 55:3 56:1 
0.89611713294691786 0:0 1:1 2:0 3:2 4:3 5:3 6:0 7:3 8:1 9:1 10:0 11:1 12:3 13:0 14:3 15:3 16:1 17:1 18:3 19:2 20:3 21:2 22:2 23:0 24:3 25:0 26:0 27:1 28:1 29:0 30:3 31:2 32:3 33:2 34:3 35:0 36:3 37:3 38:0 39:2 40:0 41:2 42:3 43:3 44:0 45:2 46:0 47:0 48:0 49:0 50:1 51:0 52:1 53:2 54:0 55:2 56:2 
0.59181603460341681 0:1 1:1 2:3 3:2 4:0 5:0 6:0 7:3 8:3 9:1 10:0 11:2 12:2 13:2 14:3 15:3 16:2 17:0 18:1 19:3 20:1 21:3 22:2 23:0 24:0 25:0 26:2 27:0 28:2 29:2 30:0 31:0 32:0 33:2 34:1 35:2 36:3 37:0 38:0 39:3 40:0 41:3 42:0 43:1 44:2 45:1 46:1 47:0 48:1 49:1 50:3 51:1 52:2 53:1 54:2 55:0 56:1 
0.93257190338150542 0:0 1:3 2:2 3:1 4:0 5:3 6:3 7:3 8:3 9:3 10:1 11:1 12:2 13:1 14:3 15:3 16:2 17:3 18:1 19:3 20:3 21:1 22:1 23:3 24:2 25:0 26:2 27:1 28:1 29:2 30:0 31:1 32:3 33:1 34:1 35:1 36:3 37:0 38:3 39:0 40:0 41:3 42:2 43:1 44:2 45:1 46:1 47:3 48:1 49:1 50:0 51:3 52:1 53:2 54:0 55:1 56:0 
1 0:2 1:1 2:0 3:0 4:0 5:3 6:0 7:0 8:3 9:1 10:0 11:0 12:3 13:2 14:3 15:2 16:2 17:0 18:1 19:3 20:3 21:3 22:3 23:1 24:3 25:2 26:1 27:1 28:2 29:3 30:2 31:0 32:3 33:3 34:0 35:3 36:0 37:2 38:0 39:1 40:0 41:1 42:3 43:3 44:3 45:3 46:2 47:3 48:3 49:0 50:1 51:2 52:1 53:2 54:3 55:3 56:3 
0.71196556701660385 0:1 1:0 2:2 3:2 4:2 5:2 6:2 7:3 8:2 9:2 10:0 11:2 12:2 13:0 14:3 15:3 16:3 17:0 18:0 19:2 20:1 21:1 22:0 23:3 24:1 25:3 26:1 27:1 28:3 29:2 30:0 31:3 32:2 33:0 34:1 35:2 36:1 37:0 38:3 39:0 40:2 41:3 42:1 43:0 44:2 45:1 46:1 47:1 48:0 49:3 50:1 51:0 52:3 53:2 54:0 55:0 56:3 
0.76117486139752855 0:3 1:0 2:2 3:2 4:1 5:0 6:1 7:1 8:1 9:1 10:0 11:2 12:2 13:1 14:3 15:3 16:3 17:0 18:1 19:0 20:1 21:3 22:3 23:3 24:0 25:3 26:2 27:1 28:3 29:3 30:1 31:1 32:2 33:2 34:1 35:3 36:1 37:2 38:3 39:0 40:3 41:2 42:3 43:3 44:2 45:3 46:2 47:3 48:2 49:2 50:0 51:0 52:3 53:3 54:2 55:3 56:2 
0.65486929334200639 0:3 1:1 2:2 3:0 4:3 5:0 6:0 7:3 8:3 9:0 10:0 11:1 12:3 13:0 14:3 15:3 16:2 17:0 18:1 19:2 20:0 21:0 22:0 23:0 24:2 25:1 26:3 27:2 28:0 29:0 30:0 31:0 32:1 33:1 34:0 35:1 36:3 37:0 38:2 39:0 40:0 41:3 42:2 43:1 44:2 45:1 46:1 47:3 48:1 49:1 50:2 51:3 52:2 53:2 54:3 55:0 56:2 
0.87857599466990899 0:1 1:0 2:3 3:1 4:1 5:3 6:1 7:2 8:1 9:0 10:1 11:1 12:0 13:2 14:3 15:1 16:2 17:0 18:1 19:2 20:0 21:1 22:2 23:2 24:3 25:3 26:3 27:0 28:1 29:2 30:1 31:3 32:3 33:3 34:0 35:1 36:2 37:3 38:0 39:3 40:0 41:2 42:3 43:2 44:2 45:1 46:2 47:0 48:1 49:0 50:0 51:3 52:3 53:3 54:3 55:3 56:3 
1 0:0 1:3 2:2 3:1 4:2 5:1 6:0 7:0 8:1 9:2 10:1 11:2 12:2 13:2 14:2 15:3 16:2 17:0 18:1 19:0 20:0 21:2 22:2 23:2 24:1 25:2 26:1 27:2 28:1 29:0 30:0 31:0 32:1 33:1 34:1 35:3 36:1 37:3 38:0 39:3 40:0 41:1 42:3 43:2 44:1 45:2 46:1 47:2 48:1 49:1 50:2 51:0 52:0 53:2 54:1 55:3 56:2 
-0.5455359331287627 0:3 1:0 2:2 3:0 4:2 5:2 6:2 7:3 8:2 9:3 10:0 11:1 12:3 13:1 14:1 15:0 16:0 17:2 18:0 19:0 20:2 21:0 22:2 23:2 24:0 25:0 26:2 27:0 28:3 29:2 30:0 31:2 32:2 33:1 34:3 35:0 36:2 37:0 38:1 39:2 40:3 41:1 42:3 43:1 44:3 45:2 46:1 47:0 48:3 49:2 50:2 51:0 52:2 53:3 54:0 55:3 56:2 
-0.61909456054698941 0:3 1:0 2:0 3:1 4:0 5:3 6:3 7:0 8:0 9:3 10:0 11:0 12:0 13:3 14:0 15:0 16:2 17:2 18:0 19:2 20:2 21:1 22:3 23:1 24:3 25:0 26:0 27:3 28:2 29:2 30:1 31:0 32:1 33:3 34:1 35:0 36:3 37:3 38:0 39:2 40:1 41:1 42:0 43:0 44:3 45:1 46:0 47:0 48:3 49:1 50:0 51:0 52:2 53:0 54:0 55:1 56:3 
-0.86139948851208847 0:1 1:0 2:3 3:2 4:3 5:1 6:0 7:2 8:1 9:1 10:3 11:1 12:2 13:0 14:1 15:0 16:0 17:1 18:3 19:3 20:2 21:1 22:0 23:3 24:0 25:0 26:0 27:3 28:2 29:1 30:3 31:3 32:3 33:1 34:3 35:3 36:2 37:3 38:0 39:2 40:0 41:1 42:2 43:3 44:2 45:1 46:1 47:1 48:3 49:0 50:1 51:2 52:1 53:2 54:1 55:3 56:3 
-0.85477979153490702 0:1 1:2 2:0 3:1 4:1 5:2 6:0 7:0 8:2 9:1 10:2 11:0 12:2 13:1 14:1 15:3 16:1 17:2 18:3 19:1 20:1 21:3 22:1 23:0 24:0 25:3 26:2 27:2 28:1 29:1 30:3 31:1 32:3 33:0 34:0 35:0 36:1 37:2 38:2 39:2 40:3 41:1 42:3 43:3 44:2 45:0 46:2 47:2 48:2 49:2 50:3 51:3 52:3 53:3 54:3 55:3 56:2 
-0.33478471421071759 0:2 1:1 2:1 3:0 4:0 5:3 6:1 7:0 8:0 9:3 10:1 11:0 12:0 13:2 14:0 15:0 16:1 17:3 18:3 19:2 20:0 21:0 22:2 23:2 24:2 25:3 26:2 27:2 28:3 29:0 30:3 31:1 32:0 33:2 34:1 35:1 36:0 37:0 38:1 39:0 40:2 41:1 42:1 43:3 44:2 45:0 46:1 47:0 48:3 49:1 50:1 51:3 52:3 53:1 54:2 55:3 56:3 
-0.81462007026879335 0:3 1:3 2:1 3:2 4:3 5:1 6:3 7:1 8:1 9:2 10:1 11:2 12:0 13:1 14:3 15:0 16:1 17:2 18:0 19:3 20:2 21:0 22:2 23:0 24:3 25:2 26:1 27:1 28:3 29:2 30:0 31:2 32:3 33:2 34:1 35:3 36:3 37:1 38:1 39:2 40:3 41:3 42:0 43:1 44:3 45:2 46:2 47:0 48:3 49:3 50:2 51:3 52:1 53:0 54:1 55:1 56:0 
-0.75269159192755941 0:3 1:3 2:0 3:1 4:3 5:2 6:3 7:2 8:0 9:0 10:1 11:0 12:3 13:3 14:0 15:3 16:3 17:1 18:2 19:3 20:1 21:3 22:1 23:1 24:2 25:1 26:2 27:0 28:1 29:3 30:0 31:1 32:2 33:0 34:3 35:2 36:0 37:2 38:0 39:3 40:2 41:1 42:1 43:3 44:2 45:0 46:2 47:3 48:2 49:1 50:3 51:3 52:1 53:1 54:2 55:3 56:3 
-1 0:1 1:0 2:0 3:3 4:2 5:2 6:1 7:1 8:3 9:1 10:3 11:0 12:0 13:0 14:1 15:2 16:2 17:2 18:3 19:1 20:3 21:3 22:2 23:0 24:2 25:2 26:2 27:2 28:3 29:3 30:3 31:3 32:3 33:3 34:2 35:1 36:3 37:2 38:0 39:0 40:0 41:2 42:2 43:0 44:2 45:2 46:0 47:0 48:1 49:3 50:0 51:3 52:0 53:3 54:2 55:1 56:2 
-0.32937214363026318 0:0 1:2 2:0 3:1 4:2 5:3 6:1 7:3 8:1 9:3 10:2 11:1 12:0 13:3 14:2 15:2 16:0 17:2 18:3 19:0 20:3 21:2 22:0 23:2 24:0 25:3 26:2 27:2 28:0 29:1 30:3 31:0 32:1 33:2 34:2 35:3 36:2 37:2 38:2 39:3 40:0 41:1 42:0 43:0 44:3 45:0 46:3 47:2 48:1 49:3 50:2 51:2 52:0 53:3 54:2 55:2 56:0 
-1 0:2 1:0 2:2 3:0 4:2 5:1 6:0 7:3 8:2 9:3 10:1 11:0 12:2 13:1 14:1 15:3 16:1 17:2 18:0 19:1 20:0 21:0 22:1 23:3 24:3 25:2 26:1 27:0 28:3 29:0 30:0 31:0 32:3 33:2 34:1 35:3 36:3 37:3 38:1 39:3 40:3 41:2 42:3 43:0 44:2 45:0 46:1 47:2 48:3 49:2 50:1 51:1 52:1 53:3 54:0 55:1 56:2 
-1 0:3 1:0 2:3 3:3 4:1 5:3 6:1 7:0 8:0 9:1 10:0 11:0 12:2 13:0 14:3 15:3 16:0 17:0 18:1 19:1 20:2 21:0 22:1 23:0 24:2 25:0 26:3 27:3 28:1 29:0 30:0 31:3 32:1 33:3 34:1 35:2 36:3 37:2 38:2 39:0 40:3 41:2 42:2 43:0 44:1 45:2 46:3 47:3 48:1 49:0 50:0 51:1 52:0 53:3 54:3 55:2 56:0 
-1 0:1 1:0 2:2 3:1 4:2 5:2 6:1 7:0 8:2 9:1 10:0 11:1 12:2 13:3 14:3 15:3 16:1 17:1 18:0 19:1 20:2 21:1 22:2 23:2 24:3 25:2 26:0 27:2 28:0 29:2 30:1 31:1 32:3 33:1 34:0 35:2 36:2 37:0 38:3 39:3 40:1 41:0 42:3 43:2 44:3 45:1 46:2 47:0 48:3 49:2 50:3 51:1 52:3 53:3 54:1 55:1 56:2 
-1 0:0 1:0 2:1 3:1 4:0 5:3 6:3 7:1 8:1 9:2 10:2 11:3 12:3 13:2 14:0 15:1 16:3 17:1 18:0 19:0 20:3 21:2 22:0 23:2 24:1 25:0 26:3 27:1 28:3 29:1 30:2 31:0 32:3 33:2 34:1 35:0 36:2 37:1 38:2 39:3 40:0 41:1 42:3 43:1 44:1 45:3 46:0 47:1 48:0 49:3 50:2 51:0 52:0 53:3 54:0 55:2 56:0 
-0.8789883846170945 0:3 1:2 2:1 3:0 4:1 5:2 6:2 7:2 8:3 9:3 10:2 11:1 12:2 13:0 14:3 15:0 16:2 17:1 18:1 19:3 20:1 21:0 22:2 23:1 24:2 25:3 26:0 27:3 28:3 29:1 30:0 31:2 32:2 33:3 34:2 35:1 36:2 37:0 38:2 39:3 40:3 41:1 42:2 43:0 44:3 45:0 46:2 47:3 48:1 49:3 50:1 51:0 52:2 53:0 54:2 55:3 56:1 
-0.78750141479094116 0:1 1:2 2:0 3:0 4:1 5:2 6:0 7:2 8:3 9:1 10:0 11:0 12:3 13:1 14:0 15:2 16:0 17:1 18:1 19:2 20:1 21:3 22:3 23:3 24:2 25:0 26:1 27:3 28:1 29:3 30:2 31:2 32:3 33:0 34:3 35:3 36:0 37:1 38:3 39:2 40:3 41:2 42:0 43:0 44:1 45:0 46:3 47:3 48:0 49:3 50:3 51:1 52:2 53:3 54:1 55:3 56:1 
-1 0:2 1:3 2:0 3:3 4:3 5:1 6:3 7:1 8:0 9:0 10:1 11:0 12:0 13:2 14:0 15:3 16:3 17:0 18:0 19:1 20:1 21:2 22:0 23:1 24:0 25:2 26:0 27:3 28:3 29:1 30:0 31:0 32:3 33:1 34:3 35:1 36:2 37:3 38:2 39:2 40:0 41:3 42:2 43:2 44:0 45:1 46:2 47:3 48:3 49:1 50:0 51:0 52:1 53:0 54:3 55:3 56:2 
-0.88569261083200956 0:0 1:3 2:0 3:3 4:2 5:0 6:0 7:1 8:2 9:3 10:3 11:2 12:0 13:2 14:0 15:1 16:3 17:2 18:1 19:1 20:2 21:1 22:3 23:2 24:0 25:2 26:3 27:3 28:0 29:3 30:1 31:0 32:2 33:1 34:3 35:2 36:3 37:2 38:0 39:0 40:1 41:2 42:0 43:1 44:0 45:3 46:3 47:1 48:3 49:2 50:2 51:1 52:2 53:3 54:1 55:3 56:0 
-1 0:3 1:0 2:3 3:3 4:2 5:2 6:1 7:3 8:3 9:2 10:1 11:3 12:1 13:0 14:0 15:2 16:1 17:0 18:3 19:2 20:0 21:0 22:1 23:3 24:1 25:0 26:0 27:2 28:2 29:1 30:3 31:2 32:0 33:3 34:0 35:1 36:2 37:2 38:1 39:2 40:0 41:2 42:0 43:1 44:3 45:3 46:2 47:1 48:2 49:0 50:2 51:1 52:1 53:3 54:3 55:2 56:3 
-0.53955703441916592 0:1 1:3 2:0 3:3 4:0 5:3 6:2 7:1 8:2 9:1 10:3 11:1 12:0 13:3 14:0 15:1 16:2 17:0 18:3 19:0 20:3 21:2 22:0 23:0 24:1 25:2 26:3 27:3 28:2 29:0 30:2 31:0 32:1 33:3 34:2 35:1 36:1 37:2 38:1 39:3 40:2 41:0 42:2 43:3 44:3 45:0 46:3 47:1 48:0 49:2 50:1 51:3 52:2 53:3 54:2 55:0 56:0 
-0.46119334801565753 0:0 1:2 2:2 3:0 4:2 5:2 6:0 7:0 8:1 9:3 10:0 11:1 12:2 13:1 14:0 15:0 16:2 17:2 18:3 19:3 20:2 21:2 22:0 23:0 24:1 25:0 26:3 27:1 28:2 29:2 30:0 31:2 32:0 33:2 34:0 35:3 36:2 37:1 38:1 39:0 40:2 41:1 42:1 43:0 44:2 45:1 46:2 47:1 48:0 49:1 50:1 51:3 52:2 53:1 54:0 55:1 56:2 
-1 0:2 1:2 2:3 3:2 4:3 5:3 6:3 7:3 8:2 9:1 10:2 11:1 12:0 13:0 14:3 15:2 16:3 17:3 18:0 19:0 20:3 21:1 22:2 23:1 24:3 25:3 26:3 27:2 28:3 29:0 30:1 31:0 32:1 33:1 34:3 35:1 36:0 37:2 38:2 39:1 40:0 41:3 42:2 43:3 44:0 45:0 46:0 47:1 48:2 49:3 50:1 51:3 52:3 53:1 54:2 55:3 56:0 
-0.91896096449250753 0:3 1:3 2:2 3:0 4:1 5:1 6:3 7:0 8:1 9:3 10:0 11:1 12:2 13:1 14:1 15:0 16:2 17:1 18:0 19:3 20:3 21:3 22:3 23:2 24:2 25:1 26:2 27:2 28:3 29:2 30:3 31:0 32:0 33:2 34:1 35:3 36:0 37:0 38:1 39:1 40:0 41:3 42:3 43:1 44:1 45:2 46:2 47:3 48:3 49:2 50:0 51:1 52:3 53:1 54:0 55:0 56:3 
-1 0:0 1:3 2:0 3:2 4:3 5:1 6:3 7:1 8:0 9:2 10:0 11:2 12:3 13:1 14:3 15:3 16:2 17:0 18:1 19:1 20:3 21:0 22:1 23:3 24:0 25:1 26:2 27:1 28:1 29:0 30:2 31:1 32:0 33:3 34:3 35:3 36:3 37:2 38:2 39:1 40:2 41:2 42:3 43:2 44:3 45:0 46:0 47:2 48:1 49:3 50:0 51:0 52:1 53:1 54:0 55:3 56:3 
-0.84906005297381748 0:0 1:0 2:1 3:3 4:1 5:0 6:0 7:2 8:2 9:1 10:3 11:2 12:0 13:3 14:0 15:1 16:2 17:2 18:1 19:2 20:0 21:2 22:0 23:1 24:3 25:3 26:2 27:1 28:2 29:0 30:2 31:1 32:1 33:3 34:3 35:2 36:3 37:1 38:1 39:3 40:3 41:2 42:1 43:2 44:2 45:3 46:0 47:1 48:0 49:1 50:0 51:2 52:1 53:0 54:2 55:1 56:2 
-1 0:1 1:2 2:1 3:3 4:0 5:2 6:2 7:0 8:1 9:3 10:3 11:3 12:1 13:3 14:3 15:2 16:3 17:3 18:2 19:0 20:3 21:3 22:3 23:3 24:1 25:1 26:0 27:3 28:2 29:1 30:2 31:2 32:3 33:2 34:3 35:3 36:3 37:3 38:2 39:1 40:2 41:1 42:0 43:0 44:3 45:2 46:3 47:3 48:0 49:0 50:3 51:1 52:2 53:1 54:3 55:3 56:3 
-0.76223562833608616 0:1 1:2 2:3 3:0 4:2 5:1 6:2 7:1 8:0 9:3 10:1 11:0 12:2 13:3 14:2 15:1 16:3 17:3 18:3 19:1 20:3 21:3 22:0 23:1 24:3 25:2 26:3 27:2 28:0 29:2 30:3 31:0 32:1 33:2 34:1 35:0 36:1 37:1 38:0 39:2 40:1 41:2 42:1 43:1 44:0 45:2 46:0 47:2 48:2 49:0 50:1 51:2 52:0 53:1 54:2 55:0 56:1 
-0.96831894662614126 0:2 1:0 2:2 3:2 4:3 5:2 6:2 7:1 8:3 9:0 10:3 11:2 12:3 13:2 14:3 15:0 16:3 17:2 18:0 19:1 20:1 21:2 22:0 23:0 24:1 25:2 26:0 27:2 28:3 29:1 30:0 31:0 32:3 33:1 34:0 35:2 36:0 37:1 38:1 39:2 40:1 41:3 42:3 43:3 44:2 45:0 46:1 47:3 48:1 49:3 50:2 51:2 52:3 53:0 54:3 55:3 56:0 
-0.54465534458047793 0:1 1:3 2:0 3:1 4:2 5:2 6:3 7:2 8:2 9:2 10:3 11:0 12:1 13:0 14:0 15:3 16:0 17:3 18:2 19:1 20:3 21:2 22:2 23:0 24:3 25:2 26:2 27:0 28:2 29:0 30:3 31:2 32:1 33:2 34:3 35:3 36:1 37:0 38:1 39:3 40:3 41:1 42:3 43:2 44:2 45:3 46:1 47:3 48:0 49:1 50:3 51:2 52:0 53:1 54:3 55:1 56:2 
-1 0:3 1:2 2:1 3:3 4:2 5:0 6:0 7:0 8:2 9:2 10:0 11:2 12:2 13:0 14:0 15:1 16:3 17:0 18:3 19:0 20:3 21:2 22:1 23:2 24:1 25:3 26:1 27:0 28:3 29:0 30:1 31:2 32:0 33:3 34:0 35:3 36:2 37:0 38:0 39:1 40:2 41:3 42:3 43:2 44:0 45:2 46:0 47:1 48:3 49:2 50:1 51:1 52:2 53:1 54:3 55:2 56:0 
-0.75380687237853317 0:3 1:2 2:2 3:0 4:3 5:2 6:2 7:0 8:1 9:2 10:3 11:3 12:1 13:0 14:0 15:1 16:0 17:3 18:3 19:2 20:0 21:2 22:2 23:0 24:0 25:2 26:2 27:1 28:0 29:3 30:0 31:0 32:1 33:2 34:1 35:3 36:0 37:1 38:3 39:0 40:1 41:1 42:3 43:2 44:0 45:3 46:2 47:3 48:3 49:3 50:0 51:1 52:3 53:1 54:1 55:0 56:0 
-1 0:0 1:2 2:2 3:1 4:0 5:3 6:2 7:3 8:0 9:0 10:0 11:1 12:2 13:3 14:1 15:3 16:3 17:1 18:2 19:3 20:0 21:2 22:1 23:2 24:1 25:0 26:3 27:1 28:0 29:2 30:3 31:2 32:1 33:3 34:3 35:3 36:1 37:3 38:3 39:0 40:1 41:3 42:2 43:3 44:2 45:0 46:2 47:3 48:0 49:1 50:2 51:1 52:0 53:1 54:1 55:0 56:2 
-1 0:0 1:1 2:2 3:1 4:3 5:0 6:0 7:1 8:2 9:1 10:0 11:2 12:0 13:3 14:2 15:1 16:0 17:2 18:1 19:2 20:0 21:0 22:1 23:2 24:1 25:3 26:1 27:2 28:2 29:1 30:2 31:3 32:0 33:3 34:3 35:1 36:3 37:1 38:0 39:0 40:1 41:0 42:0 43:2 44:0 45:3 46:3 47:0 48:0 49:1 50:1 51:2 52:0 53:1 54:0 55:2 56:0 
-1 0:2 1:0 2:0 3:2 4:0 5:1 6:1 7:0 8:1 9:2 10:1 11:1 12:3 13:1 14:2 15:1 16:1 17:0 18:1 19:1 20:2 21:0 22:2 23:3 24:0 25:2 26:0 27:1 28:1 29:1 30:3 31:3 32:0 33:2 34:0 35:2 36:0 37:2 38:1 39:0 40:3 41:2 42:3 43:1 44:0 45:2 46:1 47:1 48:3 49:1 50:2 51:0 52:1 53:0 54:0 55:1 56:3 
-1 0:3 1:0 2:3 3:2 4:0 5:1 6:1 7:2 8:0 9:0 10:1 11:2 12:0 13:2 14:3 15:1 16:0 17:0 18:3 19:1 20:0 21:2 22:0 23:1 24:1 25:2 26:1 27:3 28:3 29:3 30:2 31:0 32:1 33:3 34:1 35:3 36:2 37:2 38:3 39:0 40:3 41:3 42:0 43:1 44:3 45:2 46:3 47:2 48:0 49:0 50:1 51:0 52:3 53:3 54:0 55:3 56:3 
